%YAML:1.0
---
opencv_ml_svm:
   format: 3
   svmType: C_SVC
   kernel:
      type: LINEAR
   C: 6.2500000000000000e+01
   term_criteria: { epsilon:1.1920928955078125e-07, iterations:1000 }
   var_count: 5
   class_count: 5
   class_labels: !!opencv-matrix
      rows: 5
      cols: 1
      dt: i
      data: [ 0, 1, 2, 3, 4 ]
   sv_total: 10
   support_vectors:
      - [ 3.67755890e+00, -2.96475530e+00, -6.54788971e+00,
          6.02809572e+00, -1.92994073e-01 ]
      - [ 3.35982060e+00, -8.24387169e+00, 9.13888872e-01,
          1.11962414e+01, -7.22606325e+00 ]
      - [ 3.36102939e+00, 9.44028318e-01, -4.27765936e-01,
          1.07543020e+01, -1.46315784e+01 ]
      - [ 1.76854491e+00, -4.07215166e+00, -3.11144680e-01,
          -2.17009950e+00, 4.78483295e+00 ]
      - [ -3.92370582e-01, -9.32429123e+00, 5.43713033e-01,
          1.39215450e+01, -4.74859667e+00 ]
      - [ -4.73958433e-01, 3.63553023e+00, 5.81315422e+00,
          5.86160517e+00, -1.48363552e+01 ]
      - [ -1.67027950e+00, -4.52229857e-01, 5.14255953e+00,
          -8.49855232e+00, 5.47846508e+00 ]
      - [ 1.38883799e-01, 1.41531115e+01, -2.69106388e+00,
          -5.96953821e+00, -5.63140440e+00 ]
      - [ -3.53334713e+00, 3.22101474e+00, 2.75014615e+00,
          -1.38551159e+01, 1.14172831e+01 ]
      - [ -1.40763199e+00, -4.39690781e+00, 2.54935026e+00,
          -9.61842155e+00, 1.28735991e+01 ]
   uncompressed_sv_total: 258
   uncompressed_support_vectors:
      - [ 3.33333343e-01, 2.32323229e-01, 1.71717167e-01, 1.31313130e-01,
          1.31313130e-01 ]
      - [ 1.96819082e-01, 2.00795218e-01, 1.01391643e-01, 2.60437369e-01,
          2.40556642e-01 ]
      - [ 3.57142866e-01, 2.67857164e-01, 8.92857164e-02, 1.60714298e-01,
          1.25000000e-01 ]
      - [ 3.37209314e-01, 1.56976745e-01, 2.79069781e-01, 9.88372117e-02,
          1.27906978e-01 ]
      - [ 4.34782624e-01, 8.69565234e-02, 2.02898562e-01, 1.30434781e-01,
          1.44927531e-01 ]
      - [ 1.27551019e-01, 1.37755096e-01, 1.37755096e-01, 3.62244904e-01,
          2.34693870e-01 ]
      - [ 4.12698448e-01, 2.38095254e-01, 1.74603179e-01, 3.17460336e-02,
          1.42857149e-01 ]
      - [ 4.36708868e-01, 1.26582280e-01, 6.32911399e-02, 1.70886084e-01,
          2.02531651e-01 ]
      - [ 1.80246919e-01, 1.82716057e-01, 4.19753119e-02, 4.66666698e-01,
          1.28395066e-01 ]
      - [ 4.63768125e-01, 1.30434781e-01, 5.79710156e-02, 2.17391312e-01,
          1.30434781e-01 ]
      - [ 2.65060246e-01, 8.43373463e-02, 1.20481923e-02, 3.25301200e-01,
          3.13252985e-01 ]
      - [ 7.83505216e-02, 2.02061862e-01, 3.75257760e-01, 1.54639184e-01,
          1.89690724e-01 ]
      - [ 5.83333313e-01, 5.55555560e-02, 8.33333358e-02, 1.11111112e-01,
          1.66666672e-01 ]
      - [ 1.47590354e-01, 3.01204801e-01, 1.62650600e-01, 2.62048185e-01,
          1.26506016e-01 ]
      - [ 1.33462280e-01, 2.26305619e-01, 2.57253379e-01, 2.05029026e-01,
          1.77949712e-01 ]
      - [ 4.41860467e-01, 1.86046511e-01, 2.32558139e-02, 2.32558131e-01,
          1.16279066e-01 ]
      - [ 2.47747749e-01, 2.22972974e-01, 1.12612613e-01, 2.59009004e-01,
          1.57657668e-01 ]
      - [ 3.50364953e-01, 1.24087587e-01, 2.33576640e-01, 1.45985395e-01,
          1.45985395e-01 ]
      - [ 4.81481493e-01, 9.25925970e-02, 1.11111112e-01, 2.59259254e-01,
          5.55555560e-02 ]
      - [ 4.46043164e-01, 6.47482052e-02, 2.30215833e-01, 1.43884895e-02,
          2.44604319e-01 ]
      - [ 6.25000000e-01, 9.37500000e-02, 9.37500000e-02, 0.,
          1.87500000e-01 ]
      - [ 1.95583597e-01, 1.54574141e-01, 1.38801262e-01, 3.15457433e-01,
          1.95583597e-01 ]
      - [ 1.22122124e-01, 2.31231228e-01, 2.00200200e-01, 2.21221223e-01,
          2.25225225e-01 ]
      - [ 5.33333361e-01, 6.66666701e-02, 3.33333343e-01, 6.66666701e-02,
          0. ]
      - [ 4.68085080e-01, 1.48936167e-01, 1.06382973e-01, 1.27659574e-01,
          1.48936167e-01 ]
      - [ 3.06818187e-01, 5.68181835e-02, 1.59090906e-01, 3.29545468e-01,
          1.47727281e-01 ]
      - [ 4.76744175e-01, 1.51162788e-01, 1.04651161e-01, 1.51162788e-01,
          1.16279066e-01 ]
      - [ 1.79144382e-01, 2.29278073e-01, 1.73796788e-01, 1.45053476e-01,
          2.72727281e-01 ]
      - [ 3.50543499e-01, 1.79347828e-01, 4.07608710e-02, 2.41847828e-01,
          1.87500000e-01 ]
      - [ 4.62962955e-01, 1.29629627e-01, 2.22222224e-01, 1.29629627e-01,
          5.55555560e-02 ]
      - [ 2.14285731e-01, 1.50793657e-01, 1.90476209e-01, 2.30158746e-01,
          2.14285731e-01 ]
      - [ 1.96202531e-01, 1.26582280e-01, 3.92405063e-01, 1.58227846e-01,
          1.26582280e-01 ]
      - [ 2.39382237e-01, 1.23552121e-01, 3.20463300e-01, 1.38996139e-01,
          1.77606180e-01 ]
      - [ 3.79999995e-01, 5.99999987e-02, 1.59999996e-01, 2.39999995e-01,
          1.59999996e-01 ]
      - [ 1.45454541e-01, 8.18181783e-02, 1.81818176e-02, 5.99999964e-01,
          1.54545456e-01 ]
      - [ 3.87755096e-01, 1.42857134e-01, 0., 4.08163249e-01,
          6.12244904e-02 ]
      - [ 3.92156869e-01, 1.27450988e-01, 2.94117667e-02, 2.74509817e-01,
          1.76470593e-01 ]
      - [ 4.02985066e-01, 2.38805965e-01, 1.19402982e-01, 1.19402982e-01,
          1.19402982e-01 ]
      - [ 1.80000007e-01, 1.86666667e-01, 1.40000001e-01, 2.66666681e-01,
          2.26666674e-01 ]
      - [ 3.19444448e-01, 9.72222239e-02, 1.25000000e-01, 1.80555552e-01,
          2.77777791e-01 ]
      - [ 2.70676702e-01, 1.87969923e-01, 1.27819553e-01, 2.55639106e-01,
          1.57894745e-01 ]
      - [ 9.70873758e-02, 2.40560934e-01, 1.95253491e-01, 2.28694707e-01,
          2.38403440e-01 ]
      - [ 4.76987422e-01, 2.00836807e-01, 1.04602508e-01, 1.21338911e-01,
          9.62343067e-02 ]
      - [ 3.78378391e-01, 1.93693697e-01, 7.20720738e-02, 2.20720723e-01,
          1.35135144e-01 ]
      - [ 3.62204731e-01, 1.41732275e-01, 1.02362201e-01, 1.88976377e-01,
          2.04724401e-01 ]
      - [ 4.86111104e-01, 8.33333358e-02, 1.80555552e-01, 8.33333358e-02,
          1.66666672e-01 ]
      - [ 4.32835817e-01, 8.95522386e-02, 1.49253728e-02, 3.58208954e-01,
          1.04477607e-01 ]
      - [ 6.11111104e-01, 1.38888896e-01, 1.11111112e-01, 5.55555560e-02,
          8.33333358e-02 ]
      - [ 3.70860934e-01, 1.72185436e-01, 2.51655638e-01, 9.27152336e-02,
          1.12582780e-01 ]
      - [ 1.17283955e-01, 2.34567910e-01, 1.17283955e-01, 4.38271612e-01,
          9.25925970e-02 ]
      - [ 3.33333313e-01, 2.26950347e-01, 7.09219873e-02, 2.48226941e-01,
          1.20567374e-01 ]
      - [ 1.09756097e-01, 1.95121944e-01, 2.07317069e-01, 2.92682916e-01,
          1.95121944e-01 ]
      - [ 5.18518507e-01, 7.40740746e-02, 1.60493821e-01, 1.48148149e-01,
          9.87654328e-02 ]
      - [ 4.10256416e-01, 1.02564104e-01, 4.10256416e-01, 0.,
          7.69230798e-02 ]
      - [ 3.27102780e-01, 1.77570090e-01, 1.40186906e-01, 2.71028042e-01,
          8.41121450e-02 ]
      - [ 2.53086418e-01, 3.51851851e-01, 6.79012388e-02, 1.41975313e-01,
          1.85185194e-01 ]
      - [ 2.50000000e-01, 1.07142866e-01, 7.14285746e-02, 3.92857164e-01,
          1.78571433e-01 ]
      - [ 4.79166687e-01, 2.08333343e-01, 4.16666679e-02, 1.25000000e-01,
          1.45833343e-01 ]
      - [ 5.47619045e-01, 3.57142873e-02, 9.52380970e-02, 1.42857149e-01,
          1.78571433e-01 ]
      - [ 2.84552842e-01, 2.43902430e-01, 1.21951215e-01, 1.74796745e-01,
          1.74796745e-01 ]
      - [ 1.88725501e-01, 1.71568632e-01, 1.44607842e-01, 2.05882356e-01,
          2.89215684e-01 ]
      - [ 2.78688520e-01, 1.63934410e-01, 2.29508191e-01, 2.95081943e-01,
          3.27868834e-02 ]
      - [ 1.83431953e-01, 1.95266277e-01, 9.46745574e-02, 3.31360936e-01,
          1.95266277e-01 ]
      - [ 1.70329675e-01, 2.96703309e-01, 2.33516484e-01, 1.12637363e-01,
          1.86813191e-01 ]
      - [ 3.16326529e-01, 1.78571418e-01, 1.17346935e-01, 2.70408154e-01,
          1.17346935e-01 ]
      - [ 2.69565225e-01, 1.56521738e-01, 6.08695671e-02, 3.13043475e-01,
          2.00000003e-01 ]
      - [ 4.28571463e-01, 1.11111119e-01, 4.76190522e-02, 2.85714298e-01,
          1.26984134e-01 ]
      - [ 2.89855063e-01, 1.90016106e-01, 1.36876002e-01, 2.06119165e-01,
          1.77133664e-01 ]
      - [ 6.26016259e-01, 8.94308910e-02, 1.46341458e-01, 8.94308910e-02,
          4.87804860e-02 ]
      - [ 1.17514975e-01, 1.41467065e-01, 2.90419161e-01, 3.35329354e-01,
          1.15269467e-01 ]
      - [ 2.05748856e-01, 2.08774582e-01, 2.01210275e-01, 1.13464445e-01,
          2.70801812e-01 ]
      - [ 6.21621609e-01, 9.18918923e-02, 1.18918926e-01, 8.10810849e-02,
          8.64864886e-02 ]
      - [ 2.93706298e-01, 6.64335638e-02, 3.35664332e-01, 1.11888111e-01,
          1.92307696e-01 ]
      - [ 2.99999982e-01, 2.95652151e-01, 8.26086923e-02, 1.56521738e-01,
          1.65217385e-01 ]
      - [ 5.42857170e-01, 1.85714290e-01, 8.57142881e-02, 2.85714287e-02,
          1.57142863e-01 ]
      - [ 1.43055558e-01, 3.02777797e-01, 1.52777776e-01, 2.01388896e-01,
          2.00000003e-01 ]
      - [ 3.59999985e-01, 1.34285718e-01, 2.34285712e-01, 1.42857134e-01,
          1.28571421e-01 ]
      - [ 3.30275208e-01, 4.58715558e-02, 3.21100891e-01, 9.17431116e-02,
          2.11009160e-01 ]
      - [ 2.65060246e-01, 1.48594379e-01, 2.06827298e-01, 5.22088334e-02,
          3.27309221e-01 ]
      - [ 9.16030556e-02, 2.90076345e-01, 1.66921124e-01, 2.29516536e-01,
          2.21882954e-01 ]
      - [ 4.12903219e-01, 1.35483876e-01, 2.00000003e-01, 1.35483876e-01,
          1.16129033e-01 ]
      - [ 1.71134025e-01, 2.00000003e-01, 1.87628880e-01, 2.61855692e-01,
          1.79381445e-01 ]
      - [ 9.68586430e-02, 1.67539269e-01, 2.27748692e-01, 3.37696344e-01,
          1.70157075e-01 ]
      - [ 2.95081943e-01, 1.27049178e-01, 2.78688520e-01, 1.18852451e-01,
          1.80327863e-01 ]
      - [ 3.88888896e-01, 1.46198839e-01, 1.92982465e-01, 1.52046785e-01,
          1.19883046e-01 ]
      - [ 3.60795468e-01, 7.95454532e-02, 2.67045468e-01, 9.65909138e-02,
          1.96022734e-01 ]
      - [ 2.49520153e-01, 1.82341650e-01, 1.51631474e-01, 2.20729366e-01,
          1.95777342e-01 ]
      - [ 1.22499995e-01, 3.22499990e-01, 1.07499994e-01, 1.85000002e-01,
          2.62499988e-01 ]
      - [ 1.80134669e-01, 1.56565651e-01, 1.91919193e-01, 2.23905712e-01,
          2.47474745e-01 ]
      - [ 4.12903219e-01, 2.00000003e-01, 7.74193555e-02, 2.00000003e-01,
          1.09677419e-01 ]
      - [ 6.79347813e-01, 8.69565234e-02, 8.15217420e-02, 5.97826093e-02,
          9.23913047e-02 ]
      - [ 2.91925460e-01, 1.36645973e-01, 2.29813665e-01, 1.27329201e-01,
          2.14285716e-01 ]
      - [ 9.20245349e-02, 4.74437624e-01, 1.02249488e-01, 2.14723915e-01,
          1.16564415e-01 ]
      - [ 1.61006287e-01, 3.08176100e-01, 1.40880495e-01, 2.66666651e-01,
          1.23270437e-01 ]
      - [ 4.15417552e-01, 1.30620986e-01, 1.54175580e-01, 1.37044966e-01,
          1.62740901e-01 ]
      - [ 1.99596763e-01, 2.13709667e-01, 1.89516127e-01, 2.35887095e-01,
          1.61290318e-01 ]
      - [ 2.62166411e-01, 1.20879121e-01, 2.66875982e-01, 1.63265318e-01,
          1.86813191e-01 ]
      - [ 2.16117218e-01, 9.15750936e-02, 2.27106228e-01, 1.57509163e-01,
          3.07692319e-01 ]
      - [ 3.13725509e-02, 5.49019650e-02, 4.66666698e-01, 1.05882362e-01,
          3.41176480e-01 ]
      - [ 2.28628218e-01, 1.80914506e-01, 2.18687862e-01, 1.61033794e-01,
          2.10735574e-01 ]
      - [ 1.39593899e-01, 2.15736032e-01, 2.23350257e-01, 2.05583751e-01,
          2.15736032e-01 ]
      - [ 2.41379306e-01, 2.24137932e-01, 2.06896544e-01, 2.20689654e-01,
          1.06896549e-01 ]
      - [ 2.32514188e-01, 1.77693769e-01, 1.24763705e-01, 3.83742929e-01,
          8.12854469e-02 ]
      - [ 1.86186194e-01, 1.78678676e-01, 2.52252251e-01, 2.44744748e-01,
          1.38138145e-01 ]
      - [ 4.00843859e-01, 4.64134999e-02, 3.37552726e-01, 1.39240503e-01,
          7.59493634e-02 ]
      - [ 1.10539846e-01, 3.04627240e-01, 1.49100259e-01, 1.78663239e-01,
          2.57069409e-01 ]
      - [ 3.55450243e-01, 1.13744080e-01, 2.41706163e-01, 1.70616120e-01,
          1.18483417e-01 ]
      - [ 3.78223509e-01, 6.59025833e-02, 2.63610333e-01, 1.03151865e-01,
          1.89111754e-01 ]
      - [ 2.26277366e-01, 6.56934306e-02, 3.43065679e-01, 1.60583943e-01,
          2.04379559e-01 ]
      - [ 3.81818175e-01, 1.75757572e-01, 1.27272725e-01, 2.12121204e-01,
          1.03030302e-01 ]
      - [ 4.23173785e-01, 1.48614600e-01, 1.30982369e-01, 1.25944585e-01,
          1.71284631e-01 ]
      - [ 8.26446265e-02, 2.02479333e-01, 2.21074373e-01, 2.33471066e-01,
          2.60330558e-01 ]
      - [ 3.77192974e-01, 1.57894731e-01, 1.66666672e-01, 1.40350878e-01,
          1.57894731e-01 ]
      - [ 1.54511735e-01, 2.68232375e-01, 1.61928311e-01, 2.11372063e-01,
          2.03955501e-01 ]
      - [ 2.98507452e-01, 1.71641782e-01, 9.32835788e-02, 2.72388041e-01,
          1.64179102e-01 ]
      - [ 2.52427191e-01, 1.61812305e-01, 2.55663425e-01, 1.76375404e-01,
          1.53721690e-01 ]
      - [ 1.32511556e-01, 2.83513099e-01, 1.30970731e-01, 2.08012328e-01,
          2.44992301e-01 ]
      - [ 4.77064192e-01, 6.42201826e-02, 1.65137604e-01, 9.17431116e-02,
          2.01834857e-01 ]
      - [ 4.63541687e-01, 1.09375000e-01, 1.92708343e-01, 9.89583358e-02,
          1.35416672e-01 ]
      - [ 4.11167502e-01, 8.62944126e-02, 2.53807098e-01, 1.72588825e-01,
          7.61421323e-02 ]
      - [ 1.93548381e-01, 2.90322572e-01, 1.05990782e-01, 1.79723501e-01,
          2.30414748e-01 ]
      - [ 3.12500000e-01, 1.34375006e-01, 1.56250000e-01, 2.53125012e-01,
          1.43749997e-01 ]
      - [ 1.84848472e-01, 1.45454541e-01, 2.84848481e-01, 1.51515141e-01,
          2.33333319e-01 ]
      - [ 3.60824734e-01, 1.64948449e-01, 1.90721646e-01, 6.70103058e-02,
          2.16494843e-01 ]
      - [ 1.73652694e-01, 3.37325335e-01, 4.99002002e-02, 2.49501005e-01,
          1.89620763e-01 ]
      - [ 1.85031191e-01, 2.97297299e-01, 1.28898129e-01, 1.85031191e-01,
          2.03742206e-01 ]
      - [ 3.32773119e-01, 1.83193281e-01, 2.01680675e-01, 8.06722715e-02,
          2.01680675e-01 ]
      - [ 1.03448272e-01, 6.89655170e-02, 4.48275864e-01, 1.37931034e-01,
          2.41379306e-01 ]
      - [ 3.31950217e-01, 7.05394223e-02, 3.27800840e-01, 8.50622430e-02,
          1.84647307e-01 ]
      - [ 7.03703701e-01, 1.11111112e-01, 7.40740746e-02, 7.40740746e-02,
          3.70370373e-02 ]
      - [ 2.01277956e-01, 2.07667723e-01, 1.70394033e-01, 2.33226836e-01,
          1.87433437e-01 ]
      - [ 1.82608694e-01, 1.47826076e-01, 3.39130431e-01, 7.82608688e-02,
          2.52173901e-01 ]
      - [ 2.63157904e-01, 2.21052632e-01, 2.07017541e-01, 2.21052632e-01,
          8.77192989e-02 ]
      - [ 2.15686277e-01, 3.82352948e-01, 1.07843138e-01, 1.27450988e-01,
          1.66666672e-01 ]
      - [ 2.22370163e-01, 1.98402122e-01, 1.87749654e-01, 1.86418101e-01,
          2.05059916e-01 ]
      - [ 1.15291260e-01, 3.25242728e-01, 1.68689325e-01, 1.80825248e-01,
          2.09951460e-01 ]
      - [ 2.28650138e-01, 2.45179072e-01, 1.44628108e-01, 1.65289253e-01,
          2.16253445e-01 ]
      - [ 3.83177549e-01, 5.60747646e-02, 3.55140179e-01, 1.49532706e-01,
          5.60747646e-02 ]
      - [ 3.69426757e-02, 3.89808923e-01, 1.69426754e-01, 1.77070066e-01,
          2.26751596e-01 ]
      - [ 1.22222222e-01, 3.81481469e-01, 8.88888836e-02, 1.96296290e-01,
          2.11111113e-01 ]
      - [ 1.85558349e-01, 3.19059610e-01, 1.35180518e-01, 1.27623841e-01,
          2.32577667e-01 ]
      - [ 1.01547986e-01, 3.53560388e-01, 1.28792569e-01, 1.79566562e-01,
          2.36532509e-01 ]
      - [ 1.37965634e-01, 3.48175108e-01, 1.03348807e-01, 1.48752049e-01,
          2.61758447e-01 ]
      - [ 4.29951698e-01, 1.15942031e-01, 1.78743958e-01, 9.66183543e-02,
          1.78743958e-01 ]
      - [ 1.63886160e-01, 3.11089307e-01, 1.40333667e-01, 1.46221787e-01,
          2.38469094e-01 ]
      - [ 2.83687949e-01, 2.34042555e-01, 1.96217492e-01, 8.74704495e-02,
          1.98581561e-01 ]
      - [ 4.27480906e-01, 1.06870227e-01, 1.52671754e-01, 9.92366448e-02,
          2.13740453e-01 ]
      - [ 3.84297490e-01, 1.19834706e-01, 1.98347092e-01, 8.26446265e-02,
          2.14876026e-01 ]
      - [ 1.78453952e-01, 2.74671048e-01, 1.59539476e-01, 1.29111841e-01,
          2.58223683e-01 ]
      - [ 2.15652183e-01, 3.00869584e-01, 1.44347832e-01, 1.42608702e-01,
          1.96521744e-01 ]
      - [ 2.55464464e-01, 2.58196712e-01, 1.87158465e-01, 1.01092890e-01,
          1.98087424e-01 ]
      - [ 1.98300287e-01, 1.41643062e-01, 2.40793198e-01, 1.86968833e-01,
          2.32294619e-01 ]
      - [ 4.50819641e-01, 1.96721300e-01, 1.47540972e-01, 7.37704858e-02,
          1.31147534e-01 ]
      - [ 2.94695497e-01, 2.14145392e-01, 1.86640471e-01, 1.00196466e-01,
          2.04322204e-01 ]
      - [ 1.34715036e-01, 3.70984465e-01, 1.46113992e-01, 1.77202076e-01,
          1.70984462e-01 ]
      - [ 1.97916672e-01, 2.61363655e-01, 9.28030312e-02, 1.16477273e-01,
          3.31439406e-01 ]
      - [ 1.01126507e-01, 3.43001425e-01, 1.05787911e-01, 1.60688847e-01,
          2.89395332e-01 ]
      - [ 1.10056922e-01, 2.99810231e-01, 1.12903222e-01, 2.03036055e-01,
          2.74193555e-01 ]
      - [ 1.45975441e-01, 2.91950881e-01, 1.69167802e-01, 1.82810366e-01,
          2.10095495e-01 ]
      - [ 1.38992220e-01, 3.32093358e-01, 1.41697675e-01, 1.37977690e-01,
          2.49239102e-01 ]
      - [ 1.44827589e-01, 3.05172414e-01, 2.37931028e-01, 1.86206892e-01,
          1.25862062e-01 ]
      - [ 1.96347028e-01, 3.18112642e-01, 8.82800594e-02, 1.84170470e-01,
          2.13089809e-01 ]
      - [ 2.84916192e-01, 1.87150836e-01, 2.15083793e-01, 1.17318429e-01,
          1.95530728e-01 ]
      - [ 2.07499996e-01, 2.02500001e-01, 2.17500001e-01, 1.87500000e-01,
          1.85000002e-01 ]
      - [ 3.33333343e-01, 1.79738566e-01, 1.63398698e-01, 1.20915033e-01,
          2.02614382e-01 ]
      - [ 2.10696921e-01, 3.35494310e-01, 1.57212317e-01, 1.50729328e-01,
          1.45867094e-01 ]
      - [ 8.90882537e-02, 3.47590238e-01, 1.02858335e-01, 1.72960564e-01,
          2.87502587e-01 ]
      - [ 1.94006309e-01, 2.06624612e-01, 1.68769717e-01, 1.75078869e-01,
          2.55520523e-01 ]
      - [ 2.75598079e-01, 2.46889949e-01, 1.10047847e-01, 1.26315787e-01,
          2.41148323e-01 ]
      - [ 1.45554677e-01, 2.86388665e-01, 1.68371364e-01, 1.99055865e-01,
          2.00629428e-01 ]
      - [ 2.05278590e-01, 1.85728252e-01, 2.31671557e-01, 9.67741907e-02,
          2.80547410e-01 ]
      - [ 3.91304344e-01, 6.63615540e-02, 2.05949649e-01, 1.64759725e-01,
          1.71624705e-01 ]
      - [ 2.73206741e-01, 1.46624461e-01, 1.91983119e-01, 1.42405063e-01,
          2.45780572e-01 ]
      - [ 2.72200763e-01, 1.96911186e-01, 2.29729727e-01, 9.26640928e-02,
          2.08494201e-01 ]
      - [ 2.51182020e-01, 1.64302602e-01, 2.07446814e-01, 9.39716324e-02,
          2.83096939e-01 ]
      - [ 2.27765724e-01, 1.71366602e-01, 2.36442521e-01, 8.89370963e-02,
          2.75488079e-01 ]
      - [ 2.28401184e-01, 1.64846078e-01, 1.52929500e-01, 1.63853034e-01,
          2.89970219e-01 ]
      - [ 2.90229887e-01, 1.45114943e-01, 1.85344830e-01, 2.33477011e-01,
          1.45833328e-01 ]
      - [ 3.20318729e-01, 1.67330682e-01, 1.68127492e-01, 1.82470128e-01,
          1.61752984e-01 ]
      - [ 3.17152113e-01, 2.00647250e-01, 1.58576056e-01, 1.16504855e-01,
          2.07119748e-01 ]
      - [ 3.03724945e-01, 1.86246425e-01, 1.60458460e-01, 1.40401155e-01,
          2.09169060e-01 ]
      - [ 1.66895285e-01, 2.31824413e-01, 1.49977133e-01, 1.84270695e-01,
          2.67032474e-01 ]
      - [ 2.41987184e-01, 1.53846160e-01, 2.70833343e-01, 1.41025648e-01,
          1.92307696e-01 ]
      - [ 3.12500000e-01, 1.70258626e-01, 1.65948272e-01, 1.29310340e-01,
          2.21982762e-01 ]
      - [ 2.20312506e-01, 2.06249997e-01, 2.71874994e-01, 8.43750015e-02,
          2.17187509e-01 ]
      - [ 5.55555582e-01, 9.25925970e-02, 1.91358030e-01, 8.02469105e-02,
          8.02469105e-02 ]
      - [ 3.70114952e-01, 1.35632187e-01, 1.88505739e-01, 1.12643674e-01,
          1.93103448e-01 ]
      - [ 2.69801974e-01, 1.26237616e-01, 2.98267335e-01, 1.17574252e-01,
          1.88118815e-01 ]
      - [ 2.31481478e-01, 1.21345028e-01, 1.59356728e-01, 1.93957120e-01,
          2.93859661e-01 ]
      - [ 1.22302160e-01, 1.25899285e-01, 5.46762586e-01, 5.75539581e-02,
          1.47482023e-01 ]
      - [ 3.00571412e-01, 1.30285710e-01, 9.82857123e-02, 2.11428568e-01,
          2.59428561e-01 ]
      - [ 3.39055806e-01, 1.37339056e-01, 1.88841194e-01, 1.22317597e-01,
          2.12446347e-01 ]
      - [ 3.35443050e-01, 1.29746839e-01, 2.34177217e-01, 1.58227846e-01,
          1.42405063e-01 ]
      - [ 1.91265047e-01, 1.53614447e-01, 2.25903600e-01, 1.83734939e-01,
          2.45481923e-01 ]
      - [ 2.60687351e-01, 1.93629503e-01, 1.63453475e-01, 1.16512991e-01,
          2.65716672e-01 ]
      - [ 3.27566296e-01, 1.56862736e-01, 1.28027678e-01, 1.43021911e-01,
          2.44521335e-01 ]
      - [ 3.51543963e-01, 8.78859907e-02, 2.03087896e-01, 1.27078384e-01,
          2.30403811e-01 ]
      - [ 1.63982436e-01, 1.68374822e-01, 2.12298676e-01, 1.59590051e-01,
          2.95754015e-01 ]
      - [ 2.72138208e-01, 1.88624904e-01, 2.04463631e-01, 1.04391649e-01,
          2.30381563e-01 ]
      - [ 3.71757925e-01, 1.23919308e-01, 2.00768486e-01, 7.39673376e-02,
          2.29586929e-01 ]
      - [ 3.72307688e-01, 1.69230774e-01, 1.69230774e-01, 9.53846127e-02,
          1.93846151e-01 ]
      - [ 4.38097358e-01, 1.26028001e-01, 1.61369190e-01, 1.43587455e-01,
          1.30917981e-01 ]
      - [ 1.14518151e-01, 2.79098868e-01, 2.04005003e-01, 1.49561957e-01,
          2.52816021e-01 ]
      - [ 2.35924944e-01, 1.87667564e-01, 1.82305634e-01, 1.09919578e-01,
          2.84182310e-01 ]
      - [ 2.44712994e-01, 2.27341384e-01, 1.39728099e-01, 1.67673722e-01,
          2.20543802e-01 ]
      - [ 2.51456320e-01, 1.52427182e-01, 1.61165059e-01, 1.69902921e-01,
          2.65048563e-01 ]
      - [ 3.73553723e-01, 1.71900824e-01, 2.16528922e-01, 1.52066112e-01,
          8.59504119e-02 ]
      - [ 2.06537887e-01, 1.66419014e-01, 2.71916777e-01, 1.45616636e-01,
          2.09509656e-01 ]
      - [ 0., 0., 0., 6.66666687e-01, 3.33333343e-01 ]
      - [ 5.52631557e-01, 7.89473653e-02, 2.36842111e-01, 2.63157897e-02,
          1.05263159e-01 ]
      - [ 1.14906833e-01, 2.36024857e-01, 2.04968944e-01, 3.18840593e-01,
          1.25258803e-01 ]
      - [ 1.55963302e-01, 3.08256894e-01, 1.44954130e-01, 2.47706428e-01,
          1.43119261e-01 ]
      - [ 1.44067794e-01, 1.44067794e-01, 1.77966103e-01, 3.38983059e-01,
          1.94915250e-01 ]
      - [ 1.37789905e-01, 1.92360163e-01, 1.06412008e-01, 3.61527979e-01,
          2.01909959e-01 ]
      - [ 1.62162170e-01, 2.70270288e-01, 5.40540554e-02, 2.16216221e-01,
          2.97297299e-01 ]
      - [ 2.74509817e-01, 2.15686277e-01, 2.15686277e-01, 1.96078435e-01,
          9.80392173e-02 ]
      - [ 5.00000007e-02, 2.50000000e-01, 6.78571463e-02, 3.64285707e-01,
          2.67857134e-01 ]
      - [ 3.80281687e-01, 2.11267605e-01, 2.25352108e-01, 8.45070407e-02,
          9.85915512e-02 ]
      - [ 2.24137932e-01, 3.79310340e-01, 1.03448272e-01, 2.58620679e-01,
          3.44827585e-02 ]
      - [ 5.87912083e-01, 1.75824180e-01, 5.49450554e-02, 1.26373634e-01,
          5.49450554e-02 ]
      - [ 1.08843535e-01, 2.89115638e-01, 1.17346935e-01, 3.19727898e-01,
          1.64965987e-01 ]
      - [ 4.37500000e-01, 5.72916679e-02, 1.19791672e-01, 2.86458343e-01,
          9.89583358e-02 ]
      - [ 2.04918027e-01, 1.72131136e-01, 1.47540972e-01, 2.21311465e-01,
          2.54098356e-01 ]
      - [ 3.84615391e-01, 1.00591719e-01, 1.18343197e-01, 2.60355026e-01,
          1.36094674e-01 ]
      - [ 3.44827592e-01, 1.55172408e-01, 1.72413792e-02, 4.13793087e-01,
          6.89655170e-02 ]
      - [ 4.15492952e-01, 1.97183102e-01, 1.61971822e-01, 1.40845060e-01,
          8.45070407e-02 ]
      - [ 4.28571433e-01, 1.28571436e-01, 2.00000003e-01, 1.00000001e-01,
          1.42857149e-01 ]
      - [ 4.48275864e-01, 2.75862068e-01, 6.89655170e-02, 1.37931034e-01,
          6.89655170e-02 ]
      - [ 4.51612882e-02, 3.03225815e-01, 1.74193546e-01, 2.77419358e-01,
          2.00000003e-01 ]
      - [ 2.37410083e-01, 2.80575544e-01, 1.29496410e-01, 1.72661871e-01,
          1.79856122e-01 ]
      - [ 3.12500000e-01, 1.36363640e-01, 1.42045453e-01, 1.42045453e-01,
          2.67045468e-01 ]
      - [ 1.76204816e-01, 1.38554215e-01, 8.73493925e-02, 4.51807201e-01,
          1.46084338e-01 ]
      - [ 5.34482777e-01, 8.62068981e-02, 8.62068981e-02, 1.72413796e-01,
          1.20689653e-01 ]
      - [ 7.93650821e-02, 1.58730168e-02, 6.34920672e-02, 7.46031761e-01,
          9.52381045e-02 ]
      - [ 5.26315793e-02, 1.84210524e-01, 0., 5.26315808e-01,
          2.36842111e-01 ]
      - [ 4.85714316e-01, 2.19047621e-01, 1.23809531e-01, 8.57142881e-02,
          8.57142881e-02 ]
      - [ 2.57641912e-01, 2.27074236e-01, 1.48471624e-01, 2.48908296e-01,
          1.17903933e-01 ]
      - [ 7.51879718e-03, 3.98496240e-01, 1.05263159e-01, 2.40601510e-01,
          2.48120308e-01 ]
      - [ 4.70588237e-01, 1.76470593e-01, 8.23529437e-02, 7.05882385e-02,
          2.00000003e-01 ]
      - [ 1.81818187e-01, 2.72727281e-01, 1.36363640e-01, 3.18181813e-01,
          9.09090936e-02 ]
      - [ 1.93548381e-01, 1.93548381e-01, 2.25806445e-01, 2.25806445e-01,
          1.61290318e-01 ]
      - [ 1.78571433e-01, 2.14285731e-01, 1.78571433e-01, 2.85714298e-01,
          1.42857149e-01 ]
      - [ 5.42857170e-01, 5.71428575e-02, 1.57142863e-01, 8.57142881e-02,
          1.57142863e-01 ]
      - [ 1.94444448e-01, 3.33333343e-01, 9.72222239e-02, 2.22222224e-01,
          1.52777776e-01 ]
      - [ 1.05263159e-01, 5.26315793e-02, 3.68421048e-01, 2.63157904e-01,
          2.10526317e-01 ]
      - [ 3.85185182e-01, 1.25925928e-01, 1.55555546e-01, 2.29629621e-01,
          1.03703700e-01 ]
      - [ 2.26056948e-01, 2.22605705e-01, 2.22605705e-01, 1.55306309e-01,
          1.73425376e-01 ]
      - [ 1.74311921e-01, 1.99541271e-01, 1.86926603e-01, 3.29128414e-01,
          1.10091738e-01 ]
      - [ 5.28301895e-01, 3.39622647e-01, 0., 5.66037744e-02,
          7.54716992e-02 ]
      - [ 6.06060624e-01, 3.03030312e-02, 1.81818187e-01, 6.06060624e-02,
          1.21212125e-01 ]
      - [ 1.76470593e-01, 2.94117659e-01, 1.34453788e-01, 3.02521020e-01,
          9.24369767e-02 ]
      - [ 1.10937499e-01, 1.31250009e-01, 1.98437497e-01, 3.68750006e-01,
          1.90624997e-01 ]
      - [ 2.71186441e-01, 2.71186441e-01, 1.35593221e-01, 2.37288132e-01,
          8.47457647e-02 ]
      - [ 4.16666687e-01, 1.00000009e-01, 1.66666672e-01, 1.50000006e-01,
          1.66666672e-01 ]
      - [ 6.50000036e-01, 5.00000045e-02, 1.50000006e-01, 1.00000009e-01,
          5.00000045e-02 ]
      - [ 2.71111131e-01, 2.04444453e-01, 2.31111109e-01, 1.73333332e-01,
          1.20000005e-01 ]
      - [ 3.51351351e-01, 1.75675675e-01, 2.02702701e-01, 9.45945978e-02,
          1.75675675e-01 ]
      - [ 1.71021372e-02, 6.42280281e-01, 1.44893110e-01, 9.45368186e-02,
          1.01187646e-01 ]
   decision_functions:
      -
         sv_count: 1
         rho: 8.0680280485233391e-01
         alpha: [ 1. ]
         index: [ 0 ]
      -
         sv_count: 1
         rho: -7.2375202111202619e-01
         alpha: [ 1. ]
         index: [ 1 ]
      -
         sv_count: 1
         rho: -2.4292459605656794e-01
         alpha: [ 1. ]
         index: [ 2 ]
      -
         sv_count: 1
         rho: -5.7663629772240510e-01
         alpha: [ 1. ]
         index: [ 3 ]
      -
         sv_count: 1
         rho: -1.4165522679819811e+00
         alpha: [ 1. ]
         index: [ 4 ]
      -
         sv_count: 1
         rho: -9.6509846603068117e-01
         alpha: [ 1. ]
         index: [ 5 ]
      -
         sv_count: 1
         rho: -9.3180466189289324e-01
         alpha: [ 1. ]
         index: [ 6 ]
      -
         sv_count: 1
         rho: 9.4173715509370570e-01
         alpha: [ 1. ]
         index: [ 7 ]
      -
         sv_count: 1
         rho: 3.0469006464080700e-01
         alpha: [ 1. ]
         index: [ 8 ]
      -
         sv_count: 1
         rho: -5.2189969740577873e-02
         alpha: [ 1. ]
         index: [ 9 ]
